digraph Tree {
node [shape=box, style="filled, rounded", color="black", fontname="helvetica"] ;
edge [fontname="helvetica"] ;
0 [label="Species_CULEX RESTUANS <= 0.49\ngini = 0.14\nsamples = 14034\nvalue = [20643, 1673]", fillcolor="#e78b49"] ;
1 [label="year_2009 <= 0.67\ngini = 0.17\nsamples = 10136\nvalue = [14710, 1487]", fillcolor="#e88e4d"] ;
0 -> 1 [labeldistance=2.5, labelangle=45, headlabel="True"] ;
2 [label="distance_frm_stn1 <= -0.7\ngini = 0.2\nsamples = 8075\nvalue = [11455, 1452]", fillcolor="#e89152"] ;
1 -> 2 ;
3 [label="year_2013 <= 0.62\ngini = 0.31\nsamples = 2136\nvalue = [2737, 634]", fillcolor="#eb9e67"] ;
2 -> 3 ;
4 [label="Avg_Temp_Diff_7D <= -0.23\ngini = 0.23\nsamples = 1137\nvalue = [1565, 244]", fillcolor="#e99558"] ;
3 -> 4 ;
5 [label="(...)", fillcolor="#C0C0C0"] ;
4 -> 5 ;
144 [label="(...)", fillcolor="#C0C0C0"] ;
4 -> 144 ;
391 [label="Depart <= 0.76\ngini = 0.37\nsamples = 999\nvalue = [1172, 390]", fillcolor="#eeab7b"] ;
3 -> 391 ;
392 [label="(...)", fillcolor="#C0C0C0"] ;
391 -> 392 ;
535 [label="(...)", fillcolor="#C0C0C0"] ;
391 -> 535 ;
568 [label="monthOfYear_July <= 0.54\ngini = 0.16\nsamples = 5939\nvalue = [8718, 818]", fillcolor="#e78d4c"] ;
2 -> 568 ;
569 [label="year_2011 <= 0.71\ngini = 0.18\nsamples = 4952\nvalue = [7142, 768]", fillcolor="#e88f4e"] ;
568 -> 569 ;
570 [label="(...)", fillcolor="#C0C0C0"] ;
569 -> 570 ;
1737 [label="(...)", fillcolor="#C0C0C0"] ;
569 -> 1737 ;
1864 [label="Avg_Temp_Diff_7D <= 1.42\ngini = 0.06\nsamples = 987\nvalue = [1576, 50]", fillcolor="#e6853f"] ;
568 -> 1864 ;
1865 [label="(...)", fillcolor="#C0C0C0"] ;
1864 -> 1865 ;
1956 [label="(...)", fillcolor="#C0C0C0"] ;
1864 -> 1956 ;
1957 [label="distance_frm_stn1 <= 1.72\ngini = 0.02\nsamples = 2061\nvalue = [3255, 35]", fillcolor="#e5823b"] ;
1 -> 1957 ;
1958 [label="Depart <= -0.34\ngini = 0.02\nsamples = 2031\nvalue = [3207, 32]", fillcolor="#e5823b"] ;
1957 -> 1958 ;
1959 [label="Avg_Temp_Diff_2D <= -0.44\ngini = 0.01\nsamples = 1471\nvalue = [2362, 9]", fillcolor="#e5813a"] ;
1958 -> 1959 ;
1960 [label="(...)", fillcolor="#C0C0C0"] ;
1959 -> 1960 ;
1961 [label="(...)", fillcolor="#C0C0C0"] ;
1959 -> 1961 ;
2020 [label="day_of_week <= -0.09\ngini = 0.05\nsamples = 560\nvalue = [845, 23]", fillcolor="#e6843e"] ;
1958 -> 2020 ;
2021 [label="(...)", fillcolor="#C0C0C0"] ;
2020 -> 2021 ;
2066 [label="(...)", fillcolor="#C0C0C0"] ;
2020 -> 2066 ;
2067 [label="Avg_Temp_Diff_3D <= 0.43\ngini = 0.11\nsamples = 30\nvalue = [48, 3]", fillcolor="#e78945"] ;
1957 -> 2067 ;
2068 [label="day_of_week <= -0.45\ngini = 0.14\nsamples = 24\nvalue = [37, 3]", fillcolor="#e78b49"] ;
2067 -> 2068 ;
2069 [label="(...)", fillcolor="#C0C0C0"] ;
2068 -> 2069 ;
2074 [label="(...)", fillcolor="#C0C0C0"] ;
2068 -> 2074 ;
2075 [label="gini = 0.0\nsamples = 6\nvalue = [11, 0]", fillcolor="#e58139"] ;
2067 -> 2075 ;
2076 [label="year_2013 <= 0.62\ngini = 0.06\nsamples = 3898\nvalue = [5933, 186]", fillcolor="#e6853f"] ;
0 -> 2076 [labeldistance=2.5, labelangle=-45, headlabel="False"] ;
2077 [label="Avg_Temp_Diff_7D <= -0.23\ngini = 0.04\nsamples = 2812\nvalue = [4345, 91]", fillcolor="#e6843d"] ;
2076 -> 2077 ;
2078 [label="monthOfYear_June <= 1.04\ngini = 0.08\nsamples = 381\nvalue = [570, 26]", fillcolor="#e68742"] ;
2077 -> 2078 ;
2079 [label="distance_frm_stn1 <= -1.26\ngini = 0.12\nsamples = 271\nvalue = [395, 26]", fillcolor="#e78946"] ;
2078 -> 2079 ;
2080 [label="(...)", fillcolor="#C0C0C0"] ;
2079 -> 2080 ;
2093 [label="(...)", fillcolor="#C0C0C0"] ;
2079 -> 2093 ;
2150 [label="gini = 0.0\nsamples = 110\nvalue = [175, 0]", fillcolor="#e58139"] ;
2078 -> 2150 ;
2151 [label="Depart <= 0.13\ngini = 0.03\nsamples = 2431\nvalue = [3775, 65]", fillcolor="#e5833c"] ;
2077 -> 2151 ;
2152 [label="day_of_week <= 0.64\ngini = 0.01\nsamples = 1349\nvalue = [2107, 11]", fillcolor="#e5823a"] ;
2151 -> 2152 ;
2153 [label="(...)", fillcolor="#C0C0C0"] ;
2152 -> 2153 ;
2188 [label="(...)", fillcolor="#C0C0C0"] ;
2152 -> 2188 ;
2195 [label="Depart <= 0.45\ngini = 0.06\nsamples = 1082\nvalue = [1668, 54]", fillcolor="#e6853f"] ;
2151 -> 2195 ;
2196 [label="(...)", fillcolor="#C0C0C0"] ;
2195 -> 2196 ;
2253 [label="(...)", fillcolor="#C0C0C0"] ;
2195 -> 2253 ;
2296 [label="monthOfYear_June <= 1.04\ngini = 0.11\nsamples = 1086\nvalue = [1588, 95]", fillcolor="#e78945"] ;
2076 -> 2296 ;
2297 [label="distance_frm_stn1 <= 1.17\ngini = 0.14\nsamples = 791\nvalue = [1127, 95]", fillcolor="#e78c4a"] ;
2296 -> 2297 ;
2298 [label="day_of_week <= 0.64\ngini = 0.16\nsamples = 710\nvalue = [999, 94]", fillcolor="#e78d4c"] ;
2297 -> 2298 ;
2299 [label="(...)", fillcolor="#C0C0C0"] ;
2298 -> 2299 ;
2398 [label="(...)", fillcolor="#C0C0C0"] ;
2298 -> 2398 ;
2465 [label="Avg_Temp_Diff_4D <= 0.38\ngini = 0.02\nsamples = 81\nvalue = [128, 1]", fillcolor="#e5823b"] ;
2297 -> 2465 ;
2466 [label="(...)", fillcolor="#C0C0C0"] ;
2465 -> 2466 ;
2477 [label="(...)", fillcolor="#C0C0C0"] ;
2465 -> 2477 ;
2478 [label="gini = 0.0\nsamples = 295\nvalue = [461, 0]", fillcolor="#e58139"] ;
2296 -> 2478 ;
}